{
  "input_nodes": 5,
  "hidden_nodes": 8,
  "output_nodes": 1,
  "weights_ih": {
    "rows": 8,
    "cols": 5,
    "data": [
      [
        0.4621855753817212,
        1.8873174694654944,
        -0.4397587160012044,
        -1.1977678241337406,
        -0.1142199267518671
      ],
      [
        0.8902631567430777,
        0.4931593533056198,
        0.8921019405670303,
        0.4772419782597166,
        -0.9172698802398194
      ],
      [
        -0.35667408233716813,
        -0.6869005244313762,
        1.319213489498837,
        0.9517699254753782,
        0.26715300853523977
      ],
      [
        0.9522186343240846,
        0.8856457217100382,
        -0.1325954424919087,
        0.43321899432426925,
        0.29318654346540196
      ],
      [
        -1.269086741690248,
        1.0779544581898362,
        -0.8200995465602365,
        -0.6528043681210418,
        0.011759455284315212
      ],
      [
        -0.032461205345895916,
        0.6957524151914307,
        -0.02449062648871303,
        -0.5230036256174303,
        0.9010740829093731
      ],
      [
        -0.6953249012312217,
        0.025172104589688882,
        -0.7790195749721719,
        0.9898360631458689,
        0.361786807411395
      ],
      [
        0.6853175163559152,
        0.389257330723511,
        -0.32646741327068174,
        -0.4317365443790879,
        0.0901421504213995
      ]
    ]
  },
  "weights_ho": {
    "rows": 1,
    "cols": 8,
    "data": [
      [
        0.15374405737610752,
        -0.7587234910822689,
        -0.7681096635020714,
        0.9284014604978861,
        0.3959300163121319,
        -0.5069624709010174,
        0.9894145277614306,
        -0.3802989582299303
      ]
    ]
  },
  "bias_h": {
    "rows": 8,
    "cols": 1,
    "data": [
      [
        -0.34567263515838453
      ],
      [
        0.011529831140758784
      ],
      [
        -0.98847250290825
      ],
      [
        -0.5345566909979609
      ],
      [
        -0.5645162934963865
      ],
      [
        0.1518270068385772
      ],
      [
        0.5937238774987703
      ],
      [
        -0.2331144262813054
      ]
    ]
  },
  "bias_o": {
    "rows": 1,
    "cols": 1,
    "data": [
      [
        -0.303997053995293
      ]
    ]
  },
  "learning_rate": 0.1,
  "activation_function": {}
}
